{"type":"NeuralNetwork","sizes":[12,9,1],"layers":[{"weights":[],"biases":[]},{"weights":[[-0.0520918183028698,0.38138318061828613,0.07378953695297241,1.8175562620162964,0.3054655194282532,-0.5542882084846497,-1.321988582611084,0.4257039427757263,-0.8758610486984253,-0.3435514569282532,0.9433425664901733,0.17381279170513153],[-1.3239789009094238,1.9415756464004517,1.2796218395233154,0.4680231213569641,1.558946132659912,-1.5606470108032227,-0.5512632727622986,-1.8328522443771362,0.8325846195220947,-2.5808794498443604,3.1979212760925293,1.170281171798706],[0.6389444470405579,2.1126768589019775,-5.102534294128418,4.218476295471191,-1.3611329793930054,1.419055461883545,-4.663698196411133,2.7794718742370605,-1.7831223011016846,1.5575206279754639,0.008931860327720642,0.7927197217941284],[1.2018334865570068,0.8424173593521118,1.195417881011963,0.962540328502655,0.9865967631340027,-1.1753897666931152,0.09529362618923187,-0.4007762372493744,1.3482489585876465,-0.9315078854560852,1.8583074808120728,1.4778220653533936],[0.0700688287615776,-0.08542933315038681,-0.062011901289224625,-0.04640673100948334,-0.17623716592788696,-0.11047188192605972,-0.2640586495399475,-0.13102911412715912,0.2369430959224701,-0.20154942572116852,-0.0955590084195137,0.17023882269859314],[-0.2139870673418045,0.2118752896785736,0.1542094200849533,2.0135116577148438,0.25212469696998596,-0.5849969983100891,-1.5251253843307495,0.4137185513973236,-0.8118305206298828,-0.377586305141449,1.1878724098205566,0.0876198559999466],[0.09914006292819977,3.3020119667053223,-0.003891921602189541,-1.8661878108978271,-2.1340067386627197,2.331699848175049,-0.7979788780212402,2.4797821044921875,2.9079174995422363,1.6515517234802246,1.3179399967193604,1.07978093624115],[-0.24504998326301575,0.32045432925224304,-0.1930539608001709,1.0384312868118286,0.31417930126190186,0.1308804750442505,-0.5789915919303894,0.16787123680114746,-0.48527249693870544,0.0040105972439050674,0.3033738434314728,0.20976600050926208],[-0.21192367374897003,0.4633715748786926,0.06936444342136383,0.37512680888175964,0.16218075156211853,-0.10430725663900375,-0.14287340641021729,0.3237258493900299,0.026869166642427444,0.29742658138275146,0.08976984769105911,0.1765928864479065]],"biases":[-1.129361629486084,-0.4905635416507721,1.2666239738464355,-0.6543269157409668,-0.19723673164844513,-1.2030832767486572,-1.3420161008834839,-0.138203963637352,0.012839986011385918]},{"weights":[[3.2156753540039062,-3.5443274974823,-5.610486030578613,-2.7851815223693848,0.12994122505187988,3.4130399227142334,4.643024921417236,1.8889342546463013,1.2279285192489624]],"biases":[0.7681947350502014]}],"inputLookup":null,"inputLookupLength":0,"outputLookup":null,"outputLookupLength":0,"options":{"inputSize":13,"outputSize":1,"binaryThresh":0.5,"hiddenLayers":[9],"activation":"sigmoid"},"trainOpts":{"activation":"sigmoid","iterations":150000,"errorThresh":0.001,"log":true,"logPeriod":10,"leakyReluAlpha":0.01,"learningRate":0.01,"momentum":0.1,"callbackPeriod":10,"timeout":"Infinity","beta1":0.9,"beta2":0.999,"epsilon":1e-8}}