{"type":"NeuralNetwork","sizes":[13,9,1],"layers":[{"weights":[],"biases":[]},{"weights":[[-0.05938643589615822,0.6017352938652039,0.11281845718622208,-0.9530091881752014,0.10790228098630905,-1.167802333831787,-0.22695070505142212,0.5552688837051392,0.3974413573741913,-0.601643979549408,0.6577159762382507,-0.16884803771972656,-0.8222074508666992],[0.3431908190250397,-0.09303216636180878,0.25308892130851746,-0.4535817503929138,0.2576557397842407,-0.7422896027565002,-0.06654152274131775,0.42488065361976624,0.036552876234054565,-0.5027132630348206,0.35069990158081055,-0.17767493426799774,-0.466422438621521],[-2.3090147972106934,0.9171252846717834,0.10479090362787247,1.817254900932312,0.8529038429260254,-3.546539783477783,0.14020462334156036,-1.1207126379013062,-1.4291433095932007,0.8658584952354431,0.6882822513580322,0.26128578186035156,2.4575064182281494],[0.26433444023132324,0.28106170892715454,0.13174349069595337,-0.33260664343833923,0.09756390005350113,-0.5431100726127625,-0.3580860495567322,0.26397305727005005,-0.0748869925737381,-0.21040049195289612,-0.05295228213071823,-0.289054274559021,-0.5906592011451721],[-0.07169775664806366,0.044266633689403534,0.5080838799476624,-0.7360807657241821,0.34719201922416687,-1.3065156936645508,0.10975687205791473,0.6738253831863403,0.39131876826286316,-0.48636001348495483,0.9793651103973389,-0.3876318037509918,-0.7147308588027954],[0.03557972237467766,-0.05051691457629204,-0.6787792444229126,0.6593250632286072,-0.4237483739852905,1.419850468635559,-0.11928512901067734,-0.8287977576255798,-0.47138315439224243,0.5165976285934448,-0.7275833487510681,0.4870687425136566,0.7266103029251099],[-0.14739938080310822,0.3311798572540283,0.33172136545181274,-0.2744430601596832,-0.06307965517044067,-1.0161335468292236,0.05013687163591385,0.422213613986969,0.11366043239831924,-0.2893446087837219,0.3199770450592041,-0.15168975293636322,-0.6382675170898438],[-2.893402338027954,-0.24106468260288239,-0.3549949526786804,0.15393100678920746,-0.18424461781978607,0.8696241974830627,-0.1872512698173523,-0.01610443741083145,-1.4373383522033691,-0.1767398715019226,0.7300863862037659,1.9604928493499756,-2.073484420776367],[0.6093083620071411,0.2099320888519287,1.4734665155410767,-2.181525945663452,-0.44483399391174316,3.1740317344665527,2.7322397232055664,1.8302453756332397,-0.6289845108985901,0.09838316589593887,2.567422866821289,-1.0961575508117676,-0.9669948220252991]],"biases":[0.7650405168533325,0.28342488408088684,-1.9937528371810913,0.17232178151607513,0.22453410923480988,-0.25790509581565857,0.2553797960281372,0.024254843592643738,0.18514515459537506]},{"weights":[[-2.209254503250122,-1.4694373607635498,-4.199835300445557,-1.1613733768463135,-2.481666088104248,2.123016834259033,-1.5441854000091553,3.1545112133026123,4.567696571350098]],"biases":[-0.5367510318756104]}],"inputLookup":null,"inputLookupLength":0,"outputLookup":null,"outputLookupLength":0,"options":{"inputSize":13,"outputSize":1,"binaryThresh":0.5,"hiddenLayers":[9],"activation":"sigmoid"},"trainOpts":{"activation":"sigmoid","iterations":200000,"errorThresh":0.001,"log":true,"logPeriod":10,"leakyReluAlpha":0.01,"learningRate":0.005,"momentum":0.1,"callbackPeriod":10,"timeout":"Infinity","beta1":0.9,"beta2":0.999,"epsilon":1e-8}}